digraph Tree {
node [shape=box, style="filled, rounded", color="black", fontname=helvetica] ;
edge [fontname=helvetica] ;
0 [label="sexc <= 0.5\ngini = 0.5\nsamples = 100.0%\nvalue = [0.6, 0.4]\nclass = No", fillcolor="#e5813952"] ;
1 [label="Pclass <= 2.5\ngini = 0.4\nsamples = 36.4%\nvalue = [0.2, 0.8]\nclass = Yes", fillcolor="#399de5ab"] ;
0 -> 1 [labeldistance=2.5, labelangle=45, headlabel="True"] ;
2 [label="gini = 0.1\nsamples = 22.1%\nvalue = [0.1, 0.9]\nclass = Yes", fillcolor="#399de5ef"] ;
1 -> 2 ;
3 [label="gini = 0.5\nsamples = 14.3%\nvalue = [0.5, 0.5]\nclass = No", fillcolor="#e5813925"] ;
1 -> 3 ;
4 [label="Age <= 6.5\ngini = 0.3\nsamples = 63.6%\nvalue = [0.8, 0.2]\nclass = No", fillcolor="#e58139bd"] ;
0 -> 4 [labeldistance=2.5, labelangle=-45, headlabel="False"] ;
5 [label="gini = 0.4\nsamples = 3.4%\nvalue = [0.3, 0.7]\nclass = Yes", fillcolor="#399de57f"] ;
4 -> 5 ;
6 [label="gini = 0.3\nsamples = 60.3%\nvalue = [0.8, 0.2]\nclass = No", fillcolor="#e58139c7"] ;
4 -> 6 ;
}